digraph Tree {
node [shape=box] ;
0 [label="X[1] <= 4.0\nentropy = 0.821\nsamples = 1008\nvalue = [750, 258]"] ;
1 [label="X[5] <= 1.388\nentropy = 0.833\nsamples = 72\nvalue = [19, 53]"] ;
0 -> 1 [labeldistance=2.5, labelangle=45, headlabel="True"] ;
2 [label="X[0] <= 326.5\nentropy = 0.133\nsamples = 54\nvalue = [1, 53]"] ;
1 -> 2 ;
3 [label="X[0] <= 302.5\nentropy = 0.414\nsamples = 12\nvalue = [1, 11]"] ;
2 -> 3 ;
4 [label="entropy = 0.0\nsamples = 11\nvalue = [0, 11]"] ;
3 -> 4 ;
5 [label="entropy = 0.0\nsamples = 1\nvalue = [1, 0]"] ;
3 -> 5 ;
6 [label="entropy = 0.0\nsamples = 42\nvalue = [0, 42]"] ;
2 -> 6 ;
7 [label="entropy = 0.0\nsamples = 18\nvalue = [18, 0]"] ;
1 -> 7 ;
8 [label="X[1] <= 1966.0\nentropy = 0.758\nsamples = 936\nvalue = [731, 205]"] ;
0 -> 8 [labeldistance=2.5, labelangle=-45, headlabel="False"] ;
9 [label="X[1] <= 1271.5\nentropy = 0.495\nsamples = 480\nvalue = [428, 52]"] ;
8 -> 9 ;
10 [label="X[1] <= 904.0\nentropy = 0.31\nsamples = 252\nvalue = [238, 14]"] ;
9 -> 10 ;
11 [label="X[4] <= 51876.0\nentropy = 0.398\nsamples = 165\nvalue = [152, 13]"] ;
10 -> 11 ;
12 [label="X[1] <= 885.0\nentropy = 0.358\nsamples = 162\nvalue = [151, 11]"] ;
11 -> 12 ;
13 [label="X[5] <= 0.86\nentropy = 0.314\nsamples = 159\nvalue = [150, 9]"] ;
12 -> 13 ;
14 [label="X[2] <= 0.5\nentropy = 0.523\nsamples = 68\nvalue = [60, 8]"] ;
13 -> 14 ;
15 [label="entropy = 0.0\nsamples = 2\nvalue = [0, 2]"] ;
14 -> 15 ;
16 [label="X[1] <= 777.0\nentropy = 0.439\nsamples = 66\nvalue = [60, 6]"] ;
14 -> 16 ;
17 [label="X[1] <= 767.5\nentropy = 0.523\nsamples = 51\nvalue = [45, 6]"] ;
16 -> 17 ;
18 [label="X[0] <= 754.0\nentropy = 0.469\nsamples = 50\nvalue = [45, 5]"] ;
17 -> 18 ;
19 [label="X[0] <= 739.0\nentropy = 0.677\nsamples = 28\nvalue = [23, 5]"] ;
18 -> 19 ;
20 [label="X[0] <= 240.5\nentropy = 0.605\nsamples = 27\nvalue = [23, 4]"] ;
19 -> 20 ;
21 [label="entropy = 0.0\nsamples = 7\nvalue = [7, 0]"] ;
20 -> 21 ;
22 [label="X[0] <= 248.0\nentropy = 0.722\nsamples = 20\nvalue = [16, 4]"] ;
20 -> 22 ;
23 [label="entropy = 0.0\nsamples = 1\nvalue = [0, 1]"] ;
22 -> 23 ;
24 [label="X[0] <= 501.5\nentropy = 0.629\nsamples = 19\nvalue = [16, 3]"] ;
22 -> 24 ;
25 [label="entropy = 0.0\nsamples = 8\nvalue = [8, 0]"] ;
24 -> 25 ;
26 [label="X[0] <= 549.5\nentropy = 0.845\nsamples = 11\nvalue = [8, 3]"] ;
24 -> 26 ;
27 [label="X[2] <= 34.0\nentropy = 0.918\nsamples = 3\nvalue = [1, 2]"] ;
26 -> 27 ;
28 [label="entropy = 0.0\nsamples = 1\nvalue = [0, 1]"] ;
27 -> 28 ;
29 [label="X[0] <= 539.0\nentropy = 1.0\nsamples = 2\nvalue = [1, 1]"] ;
27 -> 29 ;
30 [label="entropy = 0.0\nsamples = 1\nvalue = [1, 0]"] ;
29 -> 30 ;
31 [label="entropy = 0.0\nsamples = 1\nvalue = [0, 1]"] ;
29 -> 31 ;
32 [label="X[3] <= 258.5\nentropy = 0.544\nsamples = 8\nvalue = [7, 1]"] ;
26 -> 32 ;
33 [label="entropy = 0.0\nsamples = 6\nvalue = [6, 0]"] ;
32 -> 33 ;
34 [label="X[2] <= 39.0\nentropy = 1.0\nsamples = 2\nvalue = [1, 1]"] ;
32 -> 34 ;
35 [label="entropy = 0.0\nsamples = 1\nvalue = [0, 1]"] ;
34 -> 35 ;
36 [label="entropy = 0.0\nsamples = 1\nvalue = [1, 0]"] ;
34 -> 36 ;
37 [label="entropy = 0.0\nsamples = 1\nvalue = [0, 1]"] ;
19 -> 37 ;
38 [label="entropy = 0.0\nsamples = 22\nvalue = [22, 0]"] ;
18 -> 38 ;
39 [label="entropy = 0.0\nsamples = 1\nvalue = [0, 1]"] ;
17 -> 39 ;
40 [label="entropy = 0.0\nsamples = 15\nvalue = [15, 0]"] ;
16 -> 40 ;
41 [label="X[2] <= 32.0\nentropy = 0.087\nsamples = 91\nvalue = [90, 1]"] ;
13 -> 41 ;
42 [label="entropy = 0.0\nsamples = 85\nvalue = [85, 0]"] ;
41 -> 42 ;
43 [label="X[4] <= 20826.5\nentropy = 0.65\nsamples = 6\nvalue = [5, 1]"] ;
41 -> 43 ;
44 [label="entropy = 0.0\nsamples = 5\nvalue = [5, 0]"] ;
43 -> 44 ;
45 [label="entropy = 0.0\nsamples = 1\nvalue = [0, 1]"] ;
43 -> 45 ;
46 [label="X[3] <= 516.0\nentropy = 0.918\nsamples = 3\nvalue = [1, 2]"] ;
12 -> 46 ;
47 [label="entropy = 0.0\nsamples = 2\nvalue = [0, 2]"] ;
46 -> 47 ;
48 [label="entropy = 0.0\nsamples = 1\nvalue = [1, 0]"] ;
46 -> 48 ;
49 [label="X[4] <= 61902.0\nentropy = 0.918\nsamples = 3\nvalue = [1, 2]"] ;
11 -> 49 ;
50 [label="entropy = 0.0\nsamples = 2\nvalue = [0, 2]"] ;
49 -> 50 ;
51 [label="entropy = 0.0\nsamples = 1\nvalue = [1, 0]"] ;
49 -> 51 ;
52 [label="X[0] <= 1072.0\nentropy = 0.091\nsamples = 87\nvalue = [86, 1]"] ;
10 -> 52 ;
53 [label="entropy = 0.0\nsamples = 78\nvalue = [78, 0]"] ;
52 -> 53 ;
54 [label="X[0] <= 1087.0\nentropy = 0.503\nsamples = 9\nvalue = [8, 1]"] ;
52 -> 54 ;
55 [label="entropy = 0.0\nsamples = 1\nvalue = [0, 1]"] ;
54 -> 55 ;
56 [label="entropy = 0.0\nsamples = 8\nvalue = [8, 0]"] ;
54 -> 56 ;
57 [label="X[2] <= 69.0\nentropy = 0.65\nsamples = 228\nvalue = [190, 38]"] ;
9 -> 57 ;
58 [label="X[5] <= 3.517\nentropy = 0.868\nsamples = 76\nvalue = [54, 22]"] ;
57 -> 58 ;
59 [label="X[3] <= 456.5\nentropy = 0.943\nsamples = 61\nvalue = [39, 22]"] ;
58 -> 59 ;
60 [label="X[3] <= 332.0\nentropy = 0.286\nsamples = 20\nvalue = [19, 1]"] ;
59 -> 60 ;
61 [label="X[1] <= 1426.5\nentropy = 1.0\nsamples = 2\nvalue = [1, 1]"] ;
60 -> 61 ;
62 [label="entropy = 0.0\nsamples = 1\nvalue = [1, 0]"] ;
61 -> 62 ;
63 [label="entropy = 0.0\nsamples = 1\nvalue = [0, 1]"] ;
61 -> 63 ;
64 [label="entropy = 0.0\nsamples = 18\nvalue = [18, 0]"] ;
60 -> 64 ;
65 [label="X[1] <= 1888.0\nentropy = 1.0\nsamples = 41\nvalue = [20, 21]"] ;
59 -> 65 ;
66 [label="X[1] <= 1331.0\nentropy = 0.98\nsamples = 36\nvalue = [15, 21]"] ;
65 -> 66 ;
67 [label="entropy = 0.0\nsamples = 5\nvalue = [0, 5]"] ;
66 -> 67 ;
68 [label="X[3] <= 533.0\nentropy = 0.999\nsamples = 31\nvalue = [15, 16]"] ;
66 -> 68 ;
69 [label="entropy = 0.0\nsamples = 4\nvalue = [4, 0]"] ;
68 -> 69 ;
70 [label="X[2] <= 13.0\nentropy = 0.975\nsamples = 27\nvalue = [11, 16]"] ;
68 -> 70 ;
71 [label="entropy = 0.0\nsamples = 4\nvalue = [0, 4]"] ;
70 -> 71 ;
72 [label="X[3] <= 724.5\nentropy = 0.999\nsamples = 23\nvalue = [11, 12]"] ;
70 -> 72 ;
73 [label="X[0] <= 1192.5\nentropy = 0.918\nsamples = 15\nvalue = [10, 5]"] ;
72 -> 73 ;
74 [label="X[2] <= 35.0\nentropy = 0.779\nsamples = 13\nvalue = [10, 3]"] ;
73 -> 74 ;
75 [label="entropy = 0.0\nsamples = 5\nvalue = [5, 0]"] ;
74 -> 75 ;
76 [label="X[0] <= 951.5\nentropy = 0.954\nsamples = 8\nvalue = [5, 3]"] ;
74 -> 76 ;
77 [label="X[2] <= 40.0\nentropy = 1.0\nsamples = 6\nvalue = [3, 3]"] ;
76 -> 77 ;
78 [label="entropy = 0.0\nsamples = 1\nvalue = [0, 1]"] ;
77 -> 78 ;
79 [label="X[2] <= 47.5\nentropy = 0.971\nsamples = 5\nvalue = [3, 2]"] ;
77 -> 79 ;
80 [label="entropy = 0.0\nsamples = 2\nvalue = [2, 0]"] ;
79 -> 80 ;
81 [label="X[3] <= 613.0\nentropy = 0.918\nsamples = 3\nvalue = [1, 2]"] ;
79 -> 81 ;
82 [label="entropy = 0.0\nsamples = 1\nvalue = [1, 0]"] ;
81 -> 82 ;
83 [label="entropy = 0.0\nsamples = 2\nvalue = [0, 2]"] ;
81 -> 83 ;
84 [label="entropy = 0.0\nsamples = 2\nvalue = [2, 0]"] ;
76 -> 84 ;
85 [label="entropy = 0.0\nsamples = 2\nvalue = [0, 2]"] ;
73 -> 85 ;
86 [label="X[3] <= 964.0\nentropy = 0.544\nsamples = 8\nvalue = [1, 7]"] ;
72 -> 86 ;
87 [label="entropy = 0.0\nsamples = 7\nvalue = [0, 7]"] ;
86 -> 87 ;
88 [label="entropy = 0.0\nsamples = 1\nvalue = [1, 0]"] ;
86 -> 88 ;
89 [label="entropy = 0.0\nsamples = 5\nvalue = [5, 0]"] ;
65 -> 89 ;
90 [label="entropy = 0.0\nsamples = 15\nvalue = [15, 0]"] ;
58 -> 90 ;
91 [label="X[3] <= 731.5\nentropy = 0.485\nsamples = 152\nvalue = [136, 16]"] ;
57 -> 91 ;
92 [label="entropy = 0.0\nsamples = 43\nvalue = [43, 0]"] ;
91 -> 92 ;
93 [label="X[0] <= 676.0\nentropy = 0.602\nsamples = 109\nvalue = [93, 16]"] ;
91 -> 93 ;
94 [label="X[2] <= 179.0\nentropy = 0.771\nsamples = 62\nvalue = [48, 14]"] ;
93 -> 94 ;
95 [label="X[3] <= 777.0\nentropy = 0.985\nsamples = 14\nvalue = [6, 8]"] ;
94 -> 95 ;
96 [label="entropy = 0.0\nsamples = 3\nvalue = [3, 0]"] ;
95 -> 96 ;
97 [label="X[2] <= 116.5\nentropy = 0.845\nsamples = 11\nvalue = [3, 8]"] ;
95 -> 97 ;
98 [label="X[2] <= 88.0\nentropy = 1.0\nsamples = 6\nvalue = [3, 3]"] ;
97 -> 98 ;
99 [label="entropy = 0.0\nsamples = 1\nvalue = [1, 0]"] ;
98 -> 99 ;
100 [label="X[2] <= 108.5\nentropy = 0.971\nsamples = 5\nvalue = [2, 3]"] ;
98 -> 100 ;
101 [label="X[4] <= 18762.0\nentropy = 0.811\nsamples = 4\nvalue = [1, 3]"] ;
100 -> 101 ;
102 [label="entropy = 0.0\nsamples = 3\nvalue = [0, 3]"] ;
101 -> 102 ;
103 [label="entropy = 0.0\nsamples = 1\nvalue = [1, 0]"] ;
101 -> 103 ;
104 [label="entropy = 0.0\nsamples = 1\nvalue = [1, 0]"] ;
100 -> 104 ;
105 [label="entropy = 0.0\nsamples = 5\nvalue = [0, 5]"] ;
97 -> 105 ;
106 [label="X[0] <= 292.0\nentropy = 0.544\nsamples = 48\nvalue = [42, 6]"] ;
94 -> 106 ;
107 [label="entropy = 0.0\nsamples = 21\nvalue = [21, 0]"] ;
106 -> 107 ;
108 [label="X[3] <= 960.0\nentropy = 0.764\nsamples = 27\nvalue = [21, 6]"] ;
106 -> 108 ;
109 [label="entropy = 0.0\nsamples = 11\nvalue = [11, 0]"] ;
108 -> 109 ;
110 [label="X[3] <= 999.0\nentropy = 0.954\nsamples = 16\nvalue = [10, 6]"] ;
108 -> 110 ;
111 [label="entropy = 0.0\nsamples = 3\nvalue = [0, 3]"] ;
110 -> 111 ;
112 [label="X[0] <= 423.0\nentropy = 0.779\nsamples = 13\nvalue = [10, 3]"] ;
110 -> 112 ;
113 [label="entropy = 0.0\nsamples = 6\nvalue = [6, 0]"] ;
112 -> 113 ;
114 [label="X[0] <= 508.5\nentropy = 0.985\nsamples = 7\nvalue = [4, 3]"] ;
112 -> 114 ;
115 [label="entropy = 0.0\nsamples = 2\nvalue = [0, 2]"] ;
114 -> 115 ;
116 [label="X[3] <= 1016.0\nentropy = 0.722\nsamples = 5\nvalue = [4, 1]"] ;
114 -> 116 ;
117 [label="entropy = 0.0\nsamples = 1\nvalue = [0, 1]"] ;
116 -> 117 ;
118 [label="entropy = 0.0\nsamples = 4\nvalue = [4, 0]"] ;
116 -> 118 ;
119 [label="X[3] <= 735.0\nentropy = 0.254\nsamples = 47\nvalue = [45, 2]"] ;
93 -> 119 ;
120 [label="entropy = 0.0\nsamples = 1\nvalue = [0, 1]"] ;
119 -> 120 ;
121 [label="X[0] <= 1220.5\nentropy = 0.151\nsamples = 46\nvalue = [45, 1]"] ;
119 -> 121 ;
122 [label="entropy = 0.0\nsamples = 43\nvalue = [43, 0]"] ;
121 -> 122 ;
123 [label="X[3] <= 1013.5\nentropy = 0.918\nsamples = 3\nvalue = [2, 1]"] ;
121 -> 123 ;
124 [label="entropy = 0.0\nsamples = 2\nvalue = [2, 0]"] ;
123 -> 124 ;
125 [label="entropy = 0.0\nsamples = 1\nvalue = [0, 1]"] ;
123 -> 125 ;
126 [label="X[1] <= 6838.0\nentropy = 0.92\nsamples = 456\nvalue = [303, 153]"] ;
8 -> 126 ;
127 [label="X[5] <= 3.781\nentropy = 0.994\nsamples = 307\nvalue = [168, 139]"] ;
126 -> 127 ;
128 [label="X[1] <= 2210.5\nentropy = 1.0\nsamples = 257\nvalue = [127, 130]"] ;
127 -> 128 ;
129 [label="X[3] <= 1163.5\nentropy = 0.918\nsamples = 54\nvalue = [36, 18]"] ;
128 -> 129 ;
130 [label="X[2] <= 145.0\nentropy = 0.689\nsamples = 38\nvalue = [31, 7]"] ;
129 -> 130 ;
131 [label="X[2] <= 124.5\nentropy = 0.902\nsamples = 22\nvalue = [15, 7]"] ;
130 -> 131 ;
132 [label="X[1] <= 2174.5\nentropy = 0.811\nsamples = 20\nvalue = [15, 5]"] ;
131 -> 132 ;
133 [label="X[0] <= 1130.0\nentropy = 0.918\nsamples = 15\nvalue = [10, 5]"] ;
132 -> 133 ;
134 [label="X[0] <= 645.0\nentropy = 0.863\nsamples = 14\nvalue = [10, 4]"] ;
133 -> 134 ;
135 [label="X[2] <= 82.0\nentropy = 0.991\nsamples = 9\nvalue = [5, 4]"] ;
134 -> 135 ;
136 [label="X[0] <= 198.5\nentropy = 0.918\nsamples = 6\nvalue = [2, 4]"] ;
135 -> 136 ;
137 [label="X[3] <= 739.5\nentropy = 0.918\nsamples = 3\nvalue = [2, 1]"] ;
136 -> 137 ;
138 [label="entropy = 0.0\nsamples = 1\nvalue = [0, 1]"] ;
137 -> 138 ;
139 [label="entropy = 0.0\nsamples = 2\nvalue = [2, 0]"] ;
137 -> 139 ;
140 [label="entropy = 0.0\nsamples = 3\nvalue = [0, 3]"] ;
136 -> 140 ;
141 [label="entropy = 0.0\nsamples = 3\nvalue = [3, 0]"] ;
135 -> 141 ;
142 [label="entropy = 0.0\nsamples = 5\nvalue = [5, 0]"] ;
134 -> 142 ;
143 [label="entropy = 0.0\nsamples = 1\nvalue = [0, 1]"] ;
133 -> 143 ;
144 [label="entropy = 0.0\nsamples = 5\nvalue = [5, 0]"] ;
132 -> 144 ;
145 [label="entropy = 0.0\nsamples = 2\nvalue = [0, 2]"] ;
131 -> 145 ;
146 [label="entropy = 0.0\nsamples = 16\nvalue = [16, 0]"] ;
130 -> 146 ;
147 [label="X[1] <= 2153.0\nentropy = 0.896\nsamples = 16\nvalue = [5, 11]"] ;
129 -> 147 ;
148 [label="X[2] <= 328.0\nentropy = 0.75\nsamples = 14\nvalue = [3, 11]"] ;
147 -> 148 ;
149 [label="entropy = 0.0\nsamples = 6\nvalue = [0, 6]"] ;
148 -> 149 ;
150 [label="X[2] <= 356.0\nentropy = 0.954\nsamples = 8\nvalue = [3, 5]"] ;
148 -> 150 ;
151 [label="entropy = 0.0\nsamples = 2\nvalue = [2, 0]"] ;
150 -> 151 ;
152 [label="X[3] <= 1471.0\nentropy = 0.65\nsamples = 6\nvalue = [1, 5]"] ;
150 -> 152 ;
153 [label="entropy = 0.0\nsamples = 5\nvalue = [0, 5]"] ;
152 -> 153 ;
154 [label="entropy = 0.0\nsamples = 1\nvalue = [1, 0]"] ;
152 -> 154 ;
155 [label="entropy = 0.0\nsamples = 2\nvalue = [2, 0]"] ;
147 -> 155 ;
156 [label="X[1] <= 3320.5\nentropy = 0.992\nsamples = 203\nvalue = [91, 112]"] ;
128 -> 156 ;
157 [label="X[5] <= 3.429\nentropy = 0.931\nsamples = 124\nvalue = [43, 81]"] ;
156 -> 157 ;
158 [label="X[3] <= 1445.0\nentropy = 0.897\nsamples = 115\nvalue = [36, 79]"] ;
157 -> 158 ;
159 [label="X[2] <= 53.5\nentropy = 0.952\nsamples = 78\nvalue = [29, 49]"] ;
158 -> 159 ;
160 [label="X[0] <= 16.5\nentropy = 0.544\nsamples = 16\nvalue = [2, 14]"] ;
159 -> 160 ;
161 [label="entropy = 0.0\nsamples = 1\nvalue = [1, 0]"] ;
160 -> 161 ;
162 [label="X[0] <= 881.5\nentropy = 0.353\nsamples = 15\nvalue = [1, 14]"] ;
160 -> 162 ;
163 [label="entropy = 0.0\nsamples = 10\nvalue = [0, 10]"] ;
162 -> 163 ;
164 [label="X[0] <= 1011.0\nentropy = 0.722\nsamples = 5\nvalue = [1, 4]"] ;
162 -> 164 ;
165 [label="entropy = 0.0\nsamples = 1\nvalue = [1, 0]"] ;
164 -> 165 ;
166 [label="entropy = 0.0\nsamples = 4\nvalue = [0, 4]"] ;
164 -> 166 ;
167 [label="X[1] <= 2381.5\nentropy = 0.988\nsamples = 62\nvalue = [27, 35]"] ;
159 -> 167 ;
168 [label="X[3] <= 1171.5\nentropy = 0.985\nsamples = 28\nvalue = [16, 12]"] ;
167 -> 168 ;
169 [label="X[1] <= 2298.5\nentropy = 0.787\nsamples = 17\nvalue = [13, 4]"] ;
168 -> 169 ;
170 [label="entropy = 0.0\nsamples = 6\nvalue = [6, 0]"] ;
169 -> 170 ;
171 [label="X[1] <= 2315.0\nentropy = 0.946\nsamples = 11\nvalue = [7, 4]"] ;
169 -> 171 ;
172 [label="entropy = 0.0\nsamples = 2\nvalue = [0, 2]"] ;
171 -> 172 ;
173 [label="X[3] <= 1032.5\nentropy = 0.764\nsamples = 9\nvalue = [7, 2]"] ;
171 -> 173 ;
174 [label="X[3] <= 941.5\nentropy = 1.0\nsamples = 4\nvalue = [2, 2]"] ;
173 -> 174 ;
175 [label="entropy = 0.0\nsamples = 2\nvalue = [2, 0]"] ;
174 -> 175 ;
176 [label="entropy = 0.0\nsamples = 2\nvalue = [0, 2]"] ;
174 -> 176 ;
177 [label="entropy = 0.0\nsamples = 5\nvalue = [5, 0]"] ;
173 -> 177 ;
178 [label="X[2] <= 389.0\nentropy = 0.845\nsamples = 11\nvalue = [3, 8]"] ;
168 -> 178 ;
179 [label="X[1] <= 2368.0\nentropy = 0.503\nsamples = 9\nvalue = [1, 8]"] ;
178 -> 179 ;
180 [label="entropy = 0.0\nsamples = 8\nvalue = [0, 8]"] ;
179 -> 180 ;
181 [label="entropy = 0.0\nsamples = 1\nvalue = [1, 0]"] ;
179 -> 181 ;
182 [label="entropy = 0.0\nsamples = 2\nvalue = [2, 0]"] ;
178 -> 182 ;
183 [label="X[3] <= 1148.0\nentropy = 0.908\nsamples = 34\nvalue = [11, 23]"] ;
167 -> 183 ;
184 [label="X[3] <= 786.0\nentropy = 0.414\nsamples = 12\nvalue = [1, 11]"] ;
183 -> 184 ;
185 [label="entropy = 0.0\nsamples = 1\nvalue = [1, 0]"] ;
184 -> 185 ;
186 [label="entropy = 0.0\nsamples = 11\nvalue = [0, 11]"] ;
184 -> 186 ;
187 [label="X[0] <= 1039.0\nentropy = 0.994\nsamples = 22\nvalue = [10, 12]"] ;
183 -> 187 ;
188 [label="X[1] <= 2471.5\nentropy = 0.977\nsamples = 17\nvalue = [10, 7]"] ;
187 -> 188 ;
189 [label="entropy = 0.0\nsamples = 2\nvalue = [0, 2]"] ;
188 -> 189 ;
190 [label="X[1] <= 2815.5\nentropy = 0.918\nsamples = 15\nvalue = [10, 5]"] ;
188 -> 190 ;
191 [label="X[3] <= 1195.5\nentropy = 0.544\nsamples = 8\nvalue = [7, 1]"] ;
190 -> 191 ;
192 [label="entropy = 0.0\nsamples = 1\nvalue = [0, 1]"] ;
191 -> 192 ;
193 [label="entropy = 0.0\nsamples = 7\nvalue = [7, 0]"] ;
191 -> 193 ;
194 [label="X[2] <= 180.0\nentropy = 0.985\nsamples = 7\nvalue = [3, 4]"] ;
190 -> 194 ;
195 [label="entropy = 0.0\nsamples = 3\nvalue = [3, 0]"] ;
194 -> 195 ;
196 [label="entropy = 0.0\nsamples = 4\nvalue = [0, 4]"] ;
194 -> 196 ;
197 [label="entropy = 0.0\nsamples = 5\nvalue = [0, 5]"] ;
187 -> 197 ;
198 [label="X[1] <= 3076.0\nentropy = 0.7\nsamples = 37\nvalue = [7, 30]"] ;
158 -> 198 ;
199 [label="X[1] <= 2593.0\nentropy = 0.381\nsamples = 27\nvalue = [2, 25]"] ;
198 -> 199 ;
200 [label="X[1] <= 2521.0\nentropy = 0.619\nsamples = 13\nvalue = [2, 11]"] ;
199 -> 200 ;
201 [label="entropy = 0.0\nsamples = 9\nvalue = [0, 9]"] ;
200 -> 201 ;
202 [label="X[3] <= 1566.0\nentropy = 1.0\nsamples = 4\nvalue = [2, 2]"] ;
200 -> 202 ;
203 [label="entropy = 0.0\nsamples = 1\nvalue = [1, 0]"] ;
202 -> 203 ;
204 [label="X[0] <= 730.0\nentropy = 0.918\nsamples = 3\nvalue = [1, 2]"] ;
202 -> 204 ;
205 [label="entropy = 0.0\nsamples = 2\nvalue = [0, 2]"] ;
204 -> 205 ;
206 [label="entropy = 0.0\nsamples = 1\nvalue = [1, 0]"] ;
204 -> 206 ;
207 [label="entropy = 0.0\nsamples = 14\nvalue = [0, 14]"] ;
199 -> 207 ;
208 [label="X[1] <= 3107.0\nentropy = 1.0\nsamples = 10\nvalue = [5, 5]"] ;
198 -> 208 ;
209 [label="entropy = 0.0\nsamples = 2\nvalue = [2, 0]"] ;
208 -> 209 ;
210 [label="X[3] <= 1625.5\nentropy = 0.954\nsamples = 8\nvalue = [3, 5]"] ;
208 -> 210 ;
211 [label="entropy = 0.0\nsamples = 2\nvalue = [0, 2]"] ;
210 -> 211 ;
212 [label="X[2] <= 395.5\nentropy = 1.0\nsamples = 6\nvalue = [3, 3]"] ;
210 -> 212 ;
213 [label="entropy = 0.0\nsamples = 2\nvalue = [2, 0]"] ;
212 -> 213 ;
214 [label="X[3] <= 2110.5\nentropy = 0.811\nsamples = 4\nvalue = [1, 3]"] ;
212 -> 214 ;
215 [label="entropy = 0.0\nsamples = 3\nvalue = [0, 3]"] ;
214 -> 215 ;
216 [label="entropy = 0.0\nsamples = 1\nvalue = [1, 0]"] ;
214 -> 216 ;
217 [label="X[4] <= 34840.0\nentropy = 0.764\nsamples = 9\nvalue = [7, 2]"] ;
157 -> 217 ;
218 [label="entropy = 0.0\nsamples = 5\nvalue = [5, 0]"] ;
217 -> 218 ;
219 [label="X[3] <= 892.0\nentropy = 1.0\nsamples = 4\nvalue = [2, 2]"] ;
217 -> 219 ;
220 [label="entropy = 0.0\nsamples = 2\nvalue = [2, 0]"] ;
219 -> 220 ;
221 [label="entropy = 0.0\nsamples = 2\nvalue = [0, 2]"] ;
219 -> 221 ;
222 [label="X[5] <= 0.375\nentropy = 0.966\nsamples = 79\nvalue = [48, 31]"] ;
156 -> 222 ;
223 [label="X[1] <= 3811.5\nentropy = 0.378\nsamples = 41\nvalue = [38, 3]"] ;
222 -> 223 ;
224 [label="X[2] <= 344.0\nentropy = 0.845\nsamples = 11\nvalue = [8, 3]"] ;
223 -> 224 ;
225 [label="entropy = 0.0\nsamples = 6\nvalue = [6, 0]"] ;
224 -> 225 ;
226 [label="X[1] <= 3562.0\nentropy = 0.971\nsamples = 5\nvalue = [2, 3]"] ;
224 -> 226 ;
227 [label="X[0] <= 821.5\nentropy = 0.918\nsamples = 3\nvalue = [2, 1]"] ;
226 -> 227 ;
228 [label="entropy = 0.0\nsamples = 2\nvalue = [2, 0]"] ;
227 -> 228 ;
229 [label="entropy = 0.0\nsamples = 1\nvalue = [0, 1]"] ;
227 -> 229 ;
230 [label="entropy = 0.0\nsamples = 2\nvalue = [0, 2]"] ;
226 -> 230 ;
231 [label="entropy = 0.0\nsamples = 30\nvalue = [30, 0]"] ;
223 -> 231 ;
232 [label="X[5] <= 2.924\nentropy = 0.831\nsamples = 38\nvalue = [10, 28]"] ;
222 -> 232 ;
233 [label="entropy = 0.0\nsamples = 8\nvalue = [0, 8]"] ;
232 -> 233 ;
234 [label="X[2] <= 488.0\nentropy = 0.918\nsamples = 30\nvalue = [10, 20]"] ;
232 -> 234 ;
235 [label="X[4] <= 17554.5\nentropy = 0.863\nsamples = 28\nvalue = [8, 20]"] ;
234 -> 235 ;
236 [label="X[0] <= 250.5\nentropy = 0.918\nsamples = 6\nvalue = [4, 2]"] ;
235 -> 236 ;
237 [label="X[5] <= 3.137\nentropy = 0.918\nsamples = 3\nvalue = [1, 2]"] ;
236 -> 237 ;
238 [label="entropy = 0.0\nsamples = 1\nvalue = [1, 0]"] ;
237 -> 238 ;
239 [label="entropy = 0.0\nsamples = 2\nvalue = [0, 2]"] ;
237 -> 239 ;
240 [label="entropy = 0.0\nsamples = 3\nvalue = [3, 0]"] ;
236 -> 240 ;
241 [label="X[5] <= 3.598\nentropy = 0.684\nsamples = 22\nvalue = [4, 18]"] ;
235 -> 241 ;
242 [label="entropy = 0.0\nsamples = 14\nvalue = [0, 14]"] ;
241 -> 242 ;
243 [label="X[4] <= 32829.0\nentropy = 1.0\nsamples = 8\nvalue = [4, 4]"] ;
241 -> 243 ;
244 [label="entropy = 0.0\nsamples = 3\nvalue = [0, 3]"] ;
243 -> 244 ;
245 [label="X[2] <= 45.0\nentropy = 0.722\nsamples = 5\nvalue = [4, 1]"] ;
243 -> 245 ;
246 [label="entropy = 0.0\nsamples = 1\nvalue = [0, 1]"] ;
245 -> 246 ;
247 [label="entropy = 0.0\nsamples = 4\nvalue = [4, 0]"] ;
245 -> 247 ;
248 [label="entropy = 0.0\nsamples = 2\nvalue = [2, 0]"] ;
234 -> 248 ;
249 [label="X[3] <= 1320.0\nentropy = 0.68\nsamples = 50\nvalue = [41, 9]"] ;
127 -> 249 ;
250 [label="entropy = 0.0\nsamples = 20\nvalue = [20, 0]"] ;
249 -> 250 ;
251 [label="X[2] <= 72.5\nentropy = 0.881\nsamples = 30\nvalue = [21, 9]"] ;
249 -> 251 ;
252 [label="entropy = 0.0\nsamples = 8\nvalue = [8, 0]"] ;
251 -> 252 ;
253 [label="X[1] <= 6353.5\nentropy = 0.976\nsamples = 22\nvalue = [13, 9]"] ;
251 -> 253 ;
254 [label="X[3] <= 2597.5\nentropy = 0.934\nsamples = 20\nvalue = [13, 7]"] ;
253 -> 254 ;
255 [label="X[3] <= 2335.0\nentropy = 0.997\nsamples = 15\nvalue = [8, 7]"] ;
254 -> 255 ;
256 [label="X[5] <= 4.443\nentropy = 0.918\nsamples = 12\nvalue = [8, 4]"] ;
255 -> 256 ;
257 [label="entropy = 0.0\nsamples = 5\nvalue = [5, 0]"] ;
256 -> 257 ;
258 [label="X[1] <= 2721.5\nentropy = 0.985\nsamples = 7\nvalue = [3, 4]"] ;
256 -> 258 ;
259 [label="entropy = 0.0\nsamples = 3\nvalue = [0, 3]"] ;
258 -> 259 ;
260 [label="X[1] <= 3761.0\nentropy = 0.811\nsamples = 4\nvalue = [3, 1]"] ;
258 -> 260 ;
261 [label="X[5] <= 7.035\nentropy = 1.0\nsamples = 2\nvalue = [1, 1]"] ;
260 -> 261 ;
262 [label="entropy = 0.0\nsamples = 1\nvalue = [1, 0]"] ;
261 -> 262 ;
263 [label="entropy = 0.0\nsamples = 1\nvalue = [0, 1]"] ;
261 -> 263 ;
264 [label="entropy = 0.0\nsamples = 2\nvalue = [2, 0]"] ;
260 -> 264 ;
265 [label="entropy = 0.0\nsamples = 3\nvalue = [0, 3]"] ;
255 -> 265 ;
266 [label="entropy = 0.0\nsamples = 5\nvalue = [5, 0]"] ;
254 -> 266 ;
267 [label="entropy = 0.0\nsamples = 2\nvalue = [0, 2]"] ;
253 -> 267 ;
268 [label="X[4] <= 68.0\nentropy = 0.45\nsamples = 149\nvalue = [135, 14]"] ;
126 -> 268 ;
269 [label="entropy = 0.0\nsamples = 78\nvalue = [78, 0]"] ;
268 -> 269 ;
270 [label="X[4] <= 54396.0\nentropy = 0.716\nsamples = 71\nvalue = [57, 14]"] ;
268 -> 270 ;
271 [label="X[5] <= 4.269\nentropy = 0.999\nsamples = 23\nvalue = [12, 11]"] ;
270 -> 271 ;
272 [label="X[5] <= 3.563\nentropy = 0.89\nsamples = 13\nvalue = [4, 9]"] ;
271 -> 272 ;
273 [label="X[2] <= 171.0\nentropy = 0.991\nsamples = 9\nvalue = [4, 5]"] ;
272 -> 273 ;
274 [label="X[0] <= 539.5\nentropy = 0.811\nsamples = 4\nvalue = [3, 1]"] ;
273 -> 274 ;
275 [label="entropy = 0.0\nsamples = 1\nvalue = [0, 1]"] ;
274 -> 275 ;
276 [label="entropy = 0.0\nsamples = 3\nvalue = [3, 0]"] ;
274 -> 276 ;
277 [label="X[3] <= 4276.0\nentropy = 0.722\nsamples = 5\nvalue = [1, 4]"] ;
273 -> 277 ;
278 [label="entropy = 0.0\nsamples = 1\nvalue = [1, 0]"] ;
277 -> 278 ;
279 [label="entropy = 0.0\nsamples = 4\nvalue = [0, 4]"] ;
277 -> 279 ;
280 [label="entropy = 0.0\nsamples = 4\nvalue = [0, 4]"] ;
272 -> 280 ;
281 [label="X[1] <= 9657.0\nentropy = 0.722\nsamples = 10\nvalue = [8, 2]"] ;
271 -> 281 ;
282 [label="X[2] <= 356.0\nentropy = 0.918\nsamples = 3\nvalue = [1, 2]"] ;
281 -> 282 ;
283 [label="entropy = 0.0\nsamples = 2\nvalue = [0, 2]"] ;
282 -> 283 ;
284 [label="entropy = 0.0\nsamples = 1\nvalue = [1, 0]"] ;
282 -> 284 ;
285 [label="entropy = 0.0\nsamples = 7\nvalue = [7, 0]"] ;
281 -> 285 ;
286 [label="X[5] <= 2.892\nentropy = 0.337\nsamples = 48\nvalue = [45, 3]"] ;
270 -> 286 ;
287 [label="X[3] <= 4525.5\nentropy = 1.0\nsamples = 4\nvalue = [2, 2]"] ;
286 -> 287 ;
288 [label="entropy = 0.0\nsamples = 2\nvalue = [2, 0]"] ;
287 -> 288 ;
289 [label="entropy = 0.0\nsamples = 2\nvalue = [0, 2]"] ;
287 -> 289 ;
290 [label="X[0] <= 205.5\nentropy = 0.156\nsamples = 44\nvalue = [43, 1]"] ;
286 -> 290 ;
291 [label="X[4] <= 149580.0\nentropy = 0.918\nsamples = 3\nvalue = [2, 1]"] ;
290 -> 291 ;
292 [label="entropy = 0.0\nsamples = 1\nvalue = [0, 1]"] ;
291 -> 292 ;
293 [label="entropy = 0.0\nsamples = 2\nvalue = [2, 0]"] ;
291 -> 293 ;
294 [label="entropy = 0.0\nsamples = 41\nvalue = [41, 0]"] ;
290 -> 294 ;
}