digraph Tree {
node [shape=box] ;
0 [label="X[1] <= 4.0\ngini = 0.381\nsamples = 1008\nvalue = [750, 258]"] ;
1 [label="X[5] <= 1.388\ngini = 0.389\nsamples = 72\nvalue = [19, 53]"] ;
0 -> 1 [labeldistance=2.5, labelangle=45, headlabel="True"] ;
2 [label="X[0] <= 326.5\ngini = 0.036\nsamples = 54\nvalue = [1, 53]"] ;
1 -> 2 ;
3 [label="X[0] <= 302.5\ngini = 0.153\nsamples = 12\nvalue = [1, 11]"] ;
2 -> 3 ;
4 [label="gini = 0.0\nsamples = 11\nvalue = [0, 11]"] ;
3 -> 4 ;
5 [label="gini = 0.0\nsamples = 1\nvalue = [1, 0]"] ;
3 -> 5 ;
6 [label="gini = 0.0\nsamples = 42\nvalue = [0, 42]"] ;
2 -> 6 ;
7 [label="gini = 0.0\nsamples = 18\nvalue = [18, 0]"] ;
1 -> 7 ;
8 [label="X[1] <= 1966.0\ngini = 0.342\nsamples = 936\nvalue = [731, 205]"] ;
0 -> 8 [labeldistance=2.5, labelangle=-45, headlabel="False"] ;
9 [label="X[4] <= 54174.0\ngini = 0.193\nsamples = 480\nvalue = [428, 52]"] ;
8 -> 9 ;
10 [label="X[1] <= 1271.5\ngini = 0.182\nsamples = 473\nvalue = [425, 48]"] ;
9 -> 10 ;
11 [label="X[0] <= 1209.0\ngini = 0.092\nsamples = 247\nvalue = [235, 12]"] ;
10 -> 11 ;
12 [label="X[5] <= 3.145\ngini = 0.081\nsamples = 236\nvalue = [226, 10]"] ;
11 -> 12 ;
13 [label="X[5] <= 3.138\ngini = 0.124\nsamples = 135\nvalue = [126, 9]"] ;
12 -> 13 ;
14 [label="X[3] <= 62.0\ngini = 0.112\nsamples = 134\nvalue = [126, 8]"] ;
13 -> 14 ;
15 [label="X[0] <= 290.5\ngini = 0.469\nsamples = 8\nvalue = [5, 3]"] ;
14 -> 15 ;
16 [label="gini = 0.0\nsamples = 3\nvalue = [0, 3]"] ;
15 -> 16 ;
17 [label="gini = 0.0\nsamples = 5\nvalue = [5, 0]"] ;
15 -> 17 ;
18 [label="X[1] <= 733.5\ngini = 0.076\nsamples = 126\nvalue = [121, 5]"] ;
14 -> 18 ;
19 [label="X[1] <= 726.5\ngini = 0.162\nsamples = 45\nvalue = [41, 4]"] ;
18 -> 19 ;
20 [label="X[1] <= 657.5\ngini = 0.127\nsamples = 44\nvalue = [41, 3]"] ;
19 -> 20 ;
21 [label="X[0] <= 514.0\ngini = 0.056\nsamples = 35\nvalue = [34, 1]"] ;
20 -> 21 ;
22 [label="X[0] <= 450.5\ngini = 0.153\nsamples = 12\nvalue = [11, 1]"] ;
21 -> 22 ;
23 [label="gini = 0.0\nsamples = 11\nvalue = [11, 0]"] ;
22 -> 23 ;
24 [label="gini = 0.0\nsamples = 1\nvalue = [0, 1]"] ;
22 -> 24 ;
25 [label="gini = 0.0\nsamples = 23\nvalue = [23, 0]"] ;
21 -> 25 ;
26 [label="X[2] <= 12.5\ngini = 0.346\nsamples = 9\nvalue = [7, 2]"] ;
20 -> 26 ;
27 [label="X[0] <= 754.0\ngini = 0.444\nsamples = 3\nvalue = [1, 2]"] ;
26 -> 27 ;
28 [label="gini = 0.0\nsamples = 2\nvalue = [0, 2]"] ;
27 -> 28 ;
29 [label="gini = 0.0\nsamples = 1\nvalue = [1, 0]"] ;
27 -> 29 ;
30 [label="gini = 0.0\nsamples = 6\nvalue = [6, 0]"] ;
26 -> 30 ;
31 [label="gini = 0.0\nsamples = 1\nvalue = [0, 1]"] ;
19 -> 31 ;
32 [label="X[1] <= 1217.5\ngini = 0.024\nsamples = 81\nvalue = [80, 1]"] ;
18 -> 32 ;
33 [label="gini = 0.0\nsamples = 73\nvalue = [73, 0]"] ;
32 -> 33 ;
34 [label="X[0] <= 1072.0\ngini = 0.219\nsamples = 8\nvalue = [7, 1]"] ;
32 -> 34 ;
35 [label="gini = 0.0\nsamples = 7\nvalue = [7, 0]"] ;
34 -> 35 ;
36 [label="gini = 0.0\nsamples = 1\nvalue = [0, 1]"] ;
34 -> 36 ;
37 [label="gini = 0.0\nsamples = 1\nvalue = [0, 1]"] ;
13 -> 37 ;
38 [label="X[2] <= 32.0\ngini = 0.02\nsamples = 101\nvalue = [100, 1]"] ;
12 -> 38 ;
39 [label="gini = 0.0\nsamples = 86\nvalue = [86, 0]"] ;
38 -> 39 ;
40 [label="X[3] <= 181.0\ngini = 0.124\nsamples = 15\nvalue = [14, 1]"] ;
38 -> 40 ;
41 [label="gini = 0.0\nsamples = 1\nvalue = [0, 1]"] ;
40 -> 41 ;
42 [label="gini = 0.0\nsamples = 14\nvalue = [14, 0]"] ;
40 -> 42 ;
43 [label="X[0] <= 1216.0\ngini = 0.298\nsamples = 11\nvalue = [9, 2]"] ;
11 -> 43 ;
44 [label="gini = 0.0\nsamples = 1\nvalue = [0, 1]"] ;
43 -> 44 ;
45 [label="X[3] <= 427.0\ngini = 0.18\nsamples = 10\nvalue = [9, 1]"] ;
43 -> 45 ;
46 [label="gini = 0.0\nsamples = 8\nvalue = [8, 0]"] ;
45 -> 46 ;
47 [label="X[4] <= 56.0\ngini = 0.5\nsamples = 2\nvalue = [1, 1]"] ;
45 -> 47 ;
48 [label="gini = 0.0\nsamples = 1\nvalue = [1, 0]"] ;
47 -> 48 ;
49 [label="gini = 0.0\nsamples = 1\nvalue = [0, 1]"] ;
47 -> 49 ;
50 [label="X[2] <= 69.0\ngini = 0.268\nsamples = 226\nvalue = [190, 36]"] ;
10 -> 50 ;
51 [label="X[1] <= 1312.5\ngini = 0.394\nsamples = 74\nvalue = [54, 20]"] ;
50 -> 51 ;
52 [label="gini = 0.0\nsamples = 3\nvalue = [0, 3]"] ;
51 -> 52 ;
53 [label="X[3] <= 513.5\ngini = 0.364\nsamples = 71\nvalue = [54, 17]"] ;
51 -> 53 ;
54 [label="X[3] <= 332.0\ngini = 0.069\nsamples = 28\nvalue = [27, 1]"] ;
53 -> 54 ;
55 [label="X[0] <= 684.0\ngini = 0.444\nsamples = 3\nvalue = [2, 1]"] ;
54 -> 55 ;
56 [label="gini = 0.0\nsamples = 1\nvalue = [0, 1]"] ;
55 -> 56 ;
57 [label="gini = 0.0\nsamples = 2\nvalue = [2, 0]"] ;
55 -> 57 ;
58 [label="gini = 0.0\nsamples = 25\nvalue = [25, 0]"] ;
54 -> 58 ;
59 [label="X[5] <= 3.346\ngini = 0.467\nsamples = 43\nvalue = [27, 16]"] ;
53 -> 59 ;
60 [label="X[1] <= 1391.0\ngini = 0.5\nsamples = 32\nvalue = [16, 16]"] ;
59 -> 60 ;
61 [label="gini = 0.0\nsamples = 4\nvalue = [0, 4]"] ;
60 -> 61 ;
62 [label="X[3] <= 724.5\ngini = 0.49\nsamples = 28\nvalue = [16, 12]"] ;
60 -> 62 ;
63 [label="X[0] <= 1192.5\ngini = 0.42\nsamples = 20\nvalue = [14, 6]"] ;
62 -> 63 ;
64 [label="X[0] <= 347.5\ngini = 0.346\nsamples = 18\nvalue = [14, 4]"] ;
63 -> 64 ;
65 [label="X[0] <= 223.5\ngini = 0.5\nsamples = 4\nvalue = [2, 2]"] ;
64 -> 65 ;
66 [label="gini = 0.0\nsamples = 2\nvalue = [2, 0]"] ;
65 -> 66 ;
67 [label="gini = 0.0\nsamples = 2\nvalue = [0, 2]"] ;
65 -> 67 ;
68 [label="X[1] <= 1600.5\ngini = 0.245\nsamples = 14\nvalue = [12, 2]"] ;
64 -> 68 ;
69 [label="X[1] <= 1536.5\ngini = 0.444\nsamples = 6\nvalue = [4, 2]"] ;
68 -> 69 ;
70 [label="gini = 0.0\nsamples = 4\nvalue = [4, 0]"] ;
69 -> 70 ;
71 [label="gini = 0.0\nsamples = 2\nvalue = [0, 2]"] ;
69 -> 71 ;
72 [label="gini = 0.0\nsamples = 8\nvalue = [8, 0]"] ;
68 -> 72 ;
73 [label="gini = 0.0\nsamples = 2\nvalue = [0, 2]"] ;
63 -> 73 ;
74 [label="X[1] <= 1792.5\ngini = 0.375\nsamples = 8\nvalue = [2, 6]"] ;
62 -> 74 ;
75 [label="gini = 0.0\nsamples = 6\nvalue = [0, 6]"] ;
74 -> 75 ;
76 [label="gini = 0.0\nsamples = 2\nvalue = [2, 0]"] ;
74 -> 76 ;
77 [label="gini = 0.0\nsamples = 11\nvalue = [11, 0]"] ;
59 -> 77 ;
78 [label="X[3] <= 910.5\ngini = 0.188\nsamples = 152\nvalue = [136, 16]"] ;
50 -> 78 ;
79 [label="X[3] <= 731.5\ngini = 0.084\nsamples = 91\nvalue = [87, 4]"] ;
78 -> 79 ;
80 [label="gini = 0.0\nsamples = 43\nvalue = [43, 0]"] ;
79 -> 80 ;
81 [label="X[3] <= 735.0\ngini = 0.153\nsamples = 48\nvalue = [44, 4]"] ;
79 -> 81 ;
82 [label="gini = 0.0\nsamples = 1\nvalue = [0, 1]"] ;
81 -> 82 ;
83 [label="X[2] <= 167.5\ngini = 0.12\nsamples = 47\nvalue = [44, 3]"] ;
81 -> 83 ;
84 [label="X[3] <= 813.0\ngini = 0.305\nsamples = 16\nvalue = [13, 3]"] ;
83 -> 84 ;
85 [label="X[3] <= 777.0\ngini = 0.142\nsamples = 13\nvalue = [12, 1]"] ;
84 -> 85 ;
86 [label="gini = 0.0\nsamples = 9\nvalue = [9, 0]"] ;
85 -> 86 ;
87 [label="X[3] <= 785.5\ngini = 0.375\nsamples = 4\nvalue = [3, 1]"] ;
85 -> 87 ;
88 [label="gini = 0.0\nsamples = 1\nvalue = [0, 1]"] ;
87 -> 88 ;
89 [label="gini = 0.0\nsamples = 3\nvalue = [3, 0]"] ;
87 -> 89 ;
90 [label="X[3] <= 835.5\ngini = 0.444\nsamples = 3\nvalue = [1, 2]"] ;
84 -> 90 ;
91 [label="gini = 0.0\nsamples = 2\nvalue = [0, 2]"] ;
90 -> 91 ;
92 [label="gini = 0.0\nsamples = 1\nvalue = [1, 0]"] ;
90 -> 92 ;
93 [label="gini = 0.0\nsamples = 31\nvalue = [31, 0]"] ;
83 -> 93 ;
94 [label="X[2] <= 254.0\ngini = 0.316\nsamples = 61\nvalue = [49, 12]"] ;
78 -> 94 ;
95 [label="X[3] <= 1054.0\ngini = 0.48\nsamples = 25\nvalue = [15, 10]"] ;
94 -> 95 ;
96 [label="X[0] <= 677.0\ngini = 0.434\nsamples = 22\nvalue = [15, 7]"] ;
95 -> 96 ;
97 [label="X[3] <= 1020.5\ngini = 0.5\nsamples = 14\nvalue = [7, 7]"] ;
96 -> 97 ;
98 [label="X[1] <= 1839.0\ngini = 0.463\nsamples = 11\nvalue = [4, 7]"] ;
97 -> 98 ;
99 [label="X[0] <= 230.5\ngini = 0.245\nsamples = 7\nvalue = [1, 6]"] ;
98 -> 99 ;
100 [label="X[3] <= 985.0\ngini = 0.5\nsamples = 2\nvalue = [1, 1]"] ;
99 -> 100 ;
101 [label="gini = 0.0\nsamples = 1\nvalue = [1, 0]"] ;
100 -> 101 ;
102 [label="gini = 0.0\nsamples = 1\nvalue = [0, 1]"] ;
100 -> 102 ;
103 [label="gini = 0.0\nsamples = 5\nvalue = [0, 5]"] ;
99 -> 103 ;
104 [label="X[5] <= 3.878\ngini = 0.375\nsamples = 4\nvalue = [3, 1]"] ;
98 -> 104 ;
105 [label="gini = 0.0\nsamples = 3\nvalue = [3, 0]"] ;
104 -> 105 ;
106 [label="gini = 0.0\nsamples = 1\nvalue = [0, 1]"] ;
104 -> 106 ;
107 [label="gini = 0.0\nsamples = 3\nvalue = [3, 0]"] ;
97 -> 107 ;
108 [label="gini = 0.0\nsamples = 8\nvalue = [8, 0]"] ;
96 -> 108 ;
109 [label="gini = 0.0\nsamples = 3\nvalue = [0, 3]"] ;
95 -> 109 ;
110 [label="X[3] <= 1273.5\ngini = 0.105\nsamples = 36\nvalue = [34, 2]"] ;
94 -> 110 ;
111 [label="X[2] <= 362.0\ngini = 0.057\nsamples = 34\nvalue = [33, 1]"] ;
110 -> 111 ;
112 [label="gini = 0.0\nsamples = 29\nvalue = [29, 0]"] ;
111 -> 112 ;
113 [label="X[1] <= 1612.5\ngini = 0.32\nsamples = 5\nvalue = [4, 1]"] ;
111 -> 113 ;
114 [label="gini = 0.0\nsamples = 1\nvalue = [0, 1]"] ;
113 -> 114 ;
115 [label="gini = 0.0\nsamples = 4\nvalue = [4, 0]"] ;
113 -> 115 ;
116 [label="X[1] <= 1752.5\ngini = 0.5\nsamples = 2\nvalue = [1, 1]"] ;
110 -> 116 ;
117 [label="gini = 0.0\nsamples = 1\nvalue = [0, 1]"] ;
116 -> 117 ;
118 [label="gini = 0.0\nsamples = 1\nvalue = [1, 0]"] ;
116 -> 118 ;
119 [label="X[0] <= 626.5\ngini = 0.49\nsamples = 7\nvalue = [3, 4]"] ;
9 -> 119 ;
120 [label="gini = 0.0\nsamples = 3\nvalue = [0, 3]"] ;
119 -> 120 ;
121 [label="X[4] <= 59814.0\ngini = 0.375\nsamples = 4\nvalue = [3, 1]"] ;
119 -> 121 ;
122 [label="gini = 0.0\nsamples = 1\nvalue = [0, 1]"] ;
121 -> 122 ;
123 [label="gini = 0.0\nsamples = 3\nvalue = [3, 0]"] ;
121 -> 123 ;
124 [label="X[1] <= 6838.0\ngini = 0.446\nsamples = 456\nvalue = [303, 153]"] ;
8 -> 124 ;
125 [label="X[5] <= 3.744\ngini = 0.496\nsamples = 307\nvalue = [168, 139]"] ;
124 -> 125 ;
126 [label="X[4] <= 18.0\ngini = 0.5\nsamples = 254\nvalue = [125, 129]"] ;
125 -> 126 ;
127 [label="X[1] <= 3434.5\ngini = 0.497\nsamples = 200\nvalue = [108, 92]"] ;
126 -> 127 ;
128 [label="X[3] <= 1163.5\ngini = 0.493\nsamples = 161\nvalue = [71, 90]"] ;
127 -> 128 ;
129 [label="X[1] <= 2375.5\ngini = 0.472\nsamples = 76\nvalue = [47, 29]"] ;
128 -> 129 ;
130 [label="X[2] <= 139.0\ngini = 0.357\nsamples = 56\nvalue = [43, 13]"] ;
129 -> 130 ;
131 [label="X[2] <= 95.0\ngini = 0.451\nsamples = 32\nvalue = [21, 11]"] ;
130 -> 131 ;
132 [label="X[2] <= 53.5\ngini = 0.393\nsamples = 26\nvalue = [19, 7]"] ;
131 -> 132 ;
133 [label="X[1] <= 2216.5\ngini = 0.496\nsamples = 11\nvalue = [6, 5]"] ;
132 -> 133 ;
134 [label="X[2] <= 28.0\ngini = 0.375\nsamples = 8\nvalue = [6, 2]"] ;
133 -> 134 ;
135 [label="gini = 0.0\nsamples = 3\nvalue = [3, 0]"] ;
134 -> 135 ;
136 [label="X[3] <= 793.0\ngini = 0.48\nsamples = 5\nvalue = [3, 2]"] ;
134 -> 136 ;
137 [label="X[0] <= 850.0\ngini = 0.444\nsamples = 3\nvalue = [1, 2]"] ;
136 -> 137 ;
138 [label="gini = 0.0\nsamples = 2\nvalue = [0, 2]"] ;
137 -> 138 ;
139 [label="gini = 0.0\nsamples = 1\nvalue = [1, 0]"] ;
137 -> 139 ;
140 [label="gini = 0.0\nsamples = 2\nvalue = [2, 0]"] ;
136 -> 140 ;
141 [label="gini = 0.0\nsamples = 3\nvalue = [0, 3]"] ;
133 -> 141 ;
142 [label="X[1] <= 1999.5\ngini = 0.231\nsamples = 15\nvalue = [13, 2]"] ;
132 -> 142 ;
143 [label="gini = 0.0\nsamples = 1\nvalue = [0, 1]"] ;
142 -> 143 ;
144 [label="X[2] <= 77.0\ngini = 0.133\nsamples = 14\nvalue = [13, 1]"] ;
142 -> 144 ;
145 [label="gini = 0.0\nsamples = 9\nvalue = [9, 0]"] ;
144 -> 145 ;
146 [label="X[0] <= 535.5\ngini = 0.32\nsamples = 5\nvalue = [4, 1]"] ;
144 -> 146 ;
147 [label="gini = 0.0\nsamples = 4\nvalue = [4, 0]"] ;
146 -> 147 ;
148 [label="gini = 0.0\nsamples = 1\nvalue = [0, 1]"] ;
146 -> 148 ;
149 [label="X[0] <= 681.0\ngini = 0.444\nsamples = 6\nvalue = [2, 4]"] ;
131 -> 149 ;
150 [label="X[3] <= 1057.0\ngini = 0.444\nsamples = 3\nvalue = [2, 1]"] ;
149 -> 150 ;
151 [label="gini = 0.0\nsamples = 2\nvalue = [2, 0]"] ;
150 -> 151 ;
152 [label="gini = 0.0\nsamples = 1\nvalue = [0, 1]"] ;
150 -> 152 ;
153 [label="gini = 0.0\nsamples = 3\nvalue = [0, 3]"] ;
149 -> 153 ;
154 [label="X[1] <= 2299.0\ngini = 0.153\nsamples = 24\nvalue = [22, 2]"] ;
130 -> 154 ;
155 [label="gini = 0.0\nsamples = 19\nvalue = [19, 0]"] ;
154 -> 155 ;
156 [label="X[0] <= 911.0\ngini = 0.48\nsamples = 5\nvalue = [3, 2]"] ;
154 -> 156 ;
157 [label="gini = 0.0\nsamples = 2\nvalue = [0, 2]"] ;
156 -> 157 ;
158 [label="gini = 0.0\nsamples = 3\nvalue = [3, 0]"] ;
156 -> 158 ;
159 [label="X[2] <= 27.5\ngini = 0.32\nsamples = 20\nvalue = [4, 16]"] ;
129 -> 159 ;
160 [label="X[0] <= 1090.0\ngini = 0.444\nsamples = 3\nvalue = [2, 1]"] ;
159 -> 160 ;
161 [label="gini = 0.0\nsamples = 2\nvalue = [2, 0]"] ;
160 -> 161 ;
162 [label="gini = 0.0\nsamples = 1\nvalue = [0, 1]"] ;
160 -> 162 ;
163 [label="X[3] <= 1148.0\ngini = 0.208\nsamples = 17\nvalue = [2, 15]"] ;
159 -> 163 ;
164 [label="X[3] <= 785.5\ngini = 0.117\nsamples = 16\nvalue = [1, 15]"] ;
163 -> 164 ;
165 [label="X[2] <= 79.5\ngini = 0.5\nsamples = 2\nvalue = [1, 1]"] ;
164 -> 165 ;
166 [label="gini = 0.0\nsamples = 1\nvalue = [0, 1]"] ;
165 -> 166 ;
167 [label="gini = 0.0\nsamples = 1\nvalue = [1, 0]"] ;
165 -> 167 ;
168 [label="gini = 0.0\nsamples = 14\nvalue = [0, 14]"] ;
164 -> 168 ;
169 [label="gini = 0.0\nsamples = 1\nvalue = [1, 0]"] ;
163 -> 169 ;
170 [label="X[0] <= 29.5\ngini = 0.405\nsamples = 85\nvalue = [24, 61]"] ;
128 -> 170 ;
171 [label="gini = 0.0\nsamples = 2\nvalue = [2, 0]"] ;
170 -> 171 ;
172 [label="X[3] <= 2110.5\ngini = 0.39\nsamples = 83\nvalue = [22, 61]"] ;
170 -> 172 ;
173 [label="X[0] <= 919.0\ngini = 0.381\nsamples = 82\nvalue = [21, 61]"] ;
172 -> 173 ;
174 [label="X[0] <= 797.0\ngini = 0.429\nsamples = 61\nvalue = [19, 42]"] ;
173 -> 174 ;
175 [label="X[2] <= 250.0\ngini = 0.393\nsamples = 52\nvalue = [14, 38]"] ;
174 -> 175 ;
176 [label="X[3] <= 1630.5\ngini = 0.18\nsamples = 20\nvalue = [2, 18]"] ;
175 -> 176 ;
177 [label="X[0] <= 178.5\ngini = 0.1\nsamples = 19\nvalue = [1, 18]"] ;
176 -> 177 ;
178 [label="X[2] <= 196.5\ngini = 0.444\nsamples = 3\nvalue = [1, 2]"] ;
177 -> 178 ;
179 [label="gini = 0.0\nsamples = 1\nvalue = [1, 0]"] ;
178 -> 179 ;
180 [label="gini = 0.0\nsamples = 2\nvalue = [0, 2]"] ;
178 -> 180 ;
181 [label="gini = 0.0\nsamples = 16\nvalue = [0, 16]"] ;
177 -> 181 ;
182 [label="gini = 0.0\nsamples = 1\nvalue = [1, 0]"] ;
176 -> 182 ;
183 [label="X[2] <= 498.0\ngini = 0.469\nsamples = 32\nvalue = [12, 20]"] ;
175 -> 183 ;
184 [label="X[2] <= 406.5\ngini = 0.499\nsamples = 25\nvalue = [12, 13]"] ;
183 -> 184 ;
185 [label="X[2] <= 356.0\ngini = 0.48\nsamples = 20\nvalue = [8, 12]"] ;
184 -> 185 ;
186 [label="X[2] <= 325.0\ngini = 0.486\nsamples = 12\nvalue = [7, 5]"] ;
185 -> 186 ;
187 [label="X[2] <= 287.5\ngini = 0.469\nsamples = 8\nvalue = [3, 5]"] ;
186 -> 187 ;
188 [label="gini = 0.0\nsamples = 2\nvalue = [2, 0]"] ;
187 -> 188 ;
189 [label="X[2] <= 320.5\ngini = 0.278\nsamples = 6\nvalue = [1, 5]"] ;
187 -> 189 ;
190 [label="gini = 0.0\nsamples = 4\nvalue = [0, 4]"] ;
189 -> 190 ;
191 [label="X[1] <= 2442.0\ngini = 0.5\nsamples = 2\nvalue = [1, 1]"] ;
189 -> 191 ;
192 [label="gini = 0.0\nsamples = 1\nvalue = [0, 1]"] ;
191 -> 192 ;
193 [label="gini = 0.0\nsamples = 1\nvalue = [1, 0]"] ;
191 -> 193 ;
194 [label="gini = 0.0\nsamples = 4\nvalue = [4, 0]"] ;
186 -> 194 ;
195 [label="X[2] <= 394.0\ngini = 0.219\nsamples = 8\nvalue = [1, 7]"] ;
185 -> 195 ;
196 [label="gini = 0.0\nsamples = 6\nvalue = [0, 6]"] ;
195 -> 196 ;
197 [label="X[1] <= 2670.0\ngini = 0.5\nsamples = 2\nvalue = [1, 1]"] ;
195 -> 197 ;
198 [label="gini = 0.0\nsamples = 1\nvalue = [1, 0]"] ;
197 -> 198 ;
199 [label="gini = 0.0\nsamples = 1\nvalue = [0, 1]"] ;
197 -> 199 ;
200 [label="X[0] <= 56.5\ngini = 0.32\nsamples = 5\nvalue = [4, 1]"] ;
184 -> 200 ;
201 [label="gini = 0.0\nsamples = 1\nvalue = [0, 1]"] ;
200 -> 201 ;
202 [label="gini = 0.0\nsamples = 4\nvalue = [4, 0]"] ;
200 -> 202 ;
203 [label="gini = 0.0\nsamples = 7\nvalue = [0, 7]"] ;
183 -> 203 ;
204 [label="X[2] <= 342.5\ngini = 0.494\nsamples = 9\nvalue = [5, 4]"] ;
174 -> 204 ;
205 [label="gini = 0.0\nsamples = 4\nvalue = [4, 0]"] ;
204 -> 205 ;
206 [label="X[0] <= 895.0\ngini = 0.32\nsamples = 5\nvalue = [1, 4]"] ;
204 -> 206 ;
207 [label="gini = 0.0\nsamples = 4\nvalue = [0, 4]"] ;
206 -> 207 ;
208 [label="gini = 0.0\nsamples = 1\nvalue = [1, 0]"] ;
206 -> 208 ;
209 [label="X[1] <= 2470.0\ngini = 0.172\nsamples = 21\nvalue = [2, 19]"] ;
173 -> 209 ;
210 [label="gini = 0.0\nsamples = 10\nvalue = [0, 10]"] ;
209 -> 210 ;
211 [label="X[1] <= 2591.5\ngini = 0.298\nsamples = 11\nvalue = [2, 9]"] ;
209 -> 211 ;
212 [label="gini = 0.0\nsamples = 1\nvalue = [1, 0]"] ;
211 -> 212 ;
213 [label="X[3] <= 1819.0\ngini = 0.18\nsamples = 10\nvalue = [1, 9]"] ;
211 -> 213 ;
214 [label="gini = 0.0\nsamples = 6\nvalue = [0, 6]"] ;
213 -> 214 ;
215 [label="X[3] <= 1826.5\ngini = 0.375\nsamples = 4\nvalue = [1, 3]"] ;
213 -> 215 ;
216 [label="gini = 0.0\nsamples = 1\nvalue = [1, 0]"] ;
215 -> 216 ;
217 [label="gini = 0.0\nsamples = 3\nvalue = [0, 3]"] ;
215 -> 217 ;
218 [label="gini = 0.0\nsamples = 1\nvalue = [1, 0]"] ;
172 -> 218 ;
219 [label="X[0] <= 33.5\ngini = 0.097\nsamples = 39\nvalue = [37, 2]"] ;
127 -> 219 ;
220 [label="gini = 0.0\nsamples = 1\nvalue = [0, 1]"] ;
219 -> 220 ;
221 [label="X[1] <= 3656.0\ngini = 0.051\nsamples = 38\nvalue = [37, 1]"] ;
219 -> 221 ;
222 [label="X[0] <= 682.0\ngini = 0.245\nsamples = 7\nvalue = [6, 1]"] ;
221 -> 222 ;
223 [label="gini = 0.0\nsamples = 6\nvalue = [6, 0]"] ;
222 -> 223 ;
224 [label="gini = 0.0\nsamples = 1\nvalue = [0, 1]"] ;
222 -> 224 ;
225 [label="gini = 0.0\nsamples = 31\nvalue = [31, 0]"] ;
221 -> 225 ;
226 [label="X[5] <= 3.45\ngini = 0.431\nsamples = 54\nvalue = [17, 37]"] ;
126 -> 226 ;
227 [label="X[2] <= 488.0\ngini = 0.307\nsamples = 37\nvalue = [7, 30]"] ;
226 -> 227 ;
228 [label="X[1] <= 2240.0\ngini = 0.251\nsamples = 34\nvalue = [5, 29]"] ;
227 -> 228 ;
229 [label="gini = 0.0\nsamples = 1\nvalue = [1, 0]"] ;
228 -> 229 ;
230 [label="X[4] <= 14486.0\ngini = 0.213\nsamples = 33\nvalue = [4, 29]"] ;
228 -> 230 ;
231 [label="X[4] <= 13763.0\ngini = 0.444\nsamples = 9\nvalue = [3, 6]"] ;
230 -> 231 ;
232 [label="X[3] <= 1617.0\ngini = 0.375\nsamples = 8\nvalue = [2, 6]"] ;
231 -> 232 ;
233 [label="gini = 0.0\nsamples = 3\nvalue = [0, 3]"] ;
232 -> 233 ;
234 [label="X[3] <= 1971.0\ngini = 0.48\nsamples = 5\nvalue = [2, 3]"] ;
232 -> 234 ;
235 [label="gini = 0.0\nsamples = 2\nvalue = [2, 0]"] ;
234 -> 235 ;
236 [label="gini = 0.0\nsamples = 3\nvalue = [0, 3]"] ;
234 -> 236 ;
237 [label="gini = 0.0\nsamples = 1\nvalue = [1, 0]"] ;
231 -> 237 ;
238 [label="X[1] <= 3014.0\ngini = 0.08\nsamples = 24\nvalue = [1, 23]"] ;
230 -> 238 ;
239 [label="X[1] <= 2968.0\ngini = 0.32\nsamples = 5\nvalue = [1, 4]"] ;
238 -> 239 ;
240 [label="gini = 0.0\nsamples = 4\nvalue = [0, 4]"] ;
239 -> 240 ;
241 [label="gini = 0.0\nsamples = 1\nvalue = [1, 0]"] ;
239 -> 241 ;
242 [label="gini = 0.0\nsamples = 19\nvalue = [0, 19]"] ;
238 -> 242 ;
243 [label="X[5] <= 1.999\ngini = 0.444\nsamples = 3\nvalue = [2, 1]"] ;
227 -> 243 ;
244 [label="gini = 0.0\nsamples = 1\nvalue = [0, 1]"] ;
243 -> 244 ;
245 [label="gini = 0.0\nsamples = 2\nvalue = [2, 0]"] ;
243 -> 245 ;
246 [label="X[5] <= 3.69\ngini = 0.484\nsamples = 17\nvalue = [10, 7]"] ;
226 -> 246 ;
247 [label="X[3] <= 1336.0\ngini = 0.355\nsamples = 13\nvalue = [10, 3]"] ;
246 -> 247 ;
248 [label="gini = 0.0\nsamples = 7\nvalue = [7, 0]"] ;
247 -> 248 ;
249 [label="X[2] <= 150.0\ngini = 0.5\nsamples = 6\nvalue = [3, 3]"] ;
247 -> 249 ;
250 [label="X[0] <= 427.0\ngini = 0.375\nsamples = 4\nvalue = [1, 3]"] ;
249 -> 250 ;
251 [label="gini = 0.0\nsamples = 1\nvalue = [1, 0]"] ;
250 -> 251 ;
252 [label="gini = 0.0\nsamples = 3\nvalue = [0, 3]"] ;
250 -> 252 ;
253 [label="gini = 0.0\nsamples = 2\nvalue = [2, 0]"] ;
249 -> 253 ;
254 [label="gini = 0.0\nsamples = 4\nvalue = [0, 4]"] ;
246 -> 254 ;
255 [label="X[1] <= 6161.0\ngini = 0.306\nsamples = 53\nvalue = [43, 10]"] ;
125 -> 255 ;
256 [label="X[3] <= 1320.0\ngini = 0.241\nsamples = 50\nvalue = [43, 7]"] ;
255 -> 256 ;
257 [label="gini = 0.0\nsamples = 22\nvalue = [22, 0]"] ;
256 -> 257 ;
258 [label="X[1] <= 2721.5\ngini = 0.375\nsamples = 28\nvalue = [21, 7]"] ;
256 -> 258 ;
259 [label="X[1] <= 2534.0\ngini = 0.375\nsamples = 4\nvalue = [1, 3]"] ;
258 -> 259 ;
260 [label="gini = 0.0\nsamples = 1\nvalue = [1, 0]"] ;
259 -> 260 ;
261 [label="gini = 0.0\nsamples = 3\nvalue = [0, 3]"] ;
259 -> 261 ;
262 [label="X[0] <= 139.5\ngini = 0.278\nsamples = 24\nvalue = [20, 4]"] ;
258 -> 262 ;
263 [label="gini = 0.0\nsamples = 1\nvalue = [0, 1]"] ;
262 -> 263 ;
264 [label="X[0] <= 837.5\ngini = 0.227\nsamples = 23\nvalue = [20, 3]"] ;
262 -> 264 ;
265 [label="gini = 0.0\nsamples = 11\nvalue = [11, 0]"] ;
264 -> 265 ;
266 [label="X[0] <= 878.5\ngini = 0.375\nsamples = 12\nvalue = [9, 3]"] ;
264 -> 266 ;
267 [label="gini = 0.0\nsamples = 2\nvalue = [0, 2]"] ;
266 -> 267 ;
268 [label="X[4] <= 10.5\ngini = 0.18\nsamples = 10\nvalue = [9, 1]"] ;
266 -> 268 ;
269 [label="X[3] <= 1889.5\ngini = 0.5\nsamples = 2\nvalue = [1, 1]"] ;
268 -> 269 ;
270 [label="gini = 0.0\nsamples = 1\nvalue = [0, 1]"] ;
269 -> 270 ;
271 [label="gini = 0.0\nsamples = 1\nvalue = [1, 0]"] ;
269 -> 271 ;
272 [label="gini = 0.0\nsamples = 8\nvalue = [8, 0]"] ;
268 -> 272 ;
273 [label="gini = 0.0\nsamples = 3\nvalue = [0, 3]"] ;
255 -> 273 ;
274 [label="X[4] <= 68.0\ngini = 0.17\nsamples = 149\nvalue = [135, 14]"] ;
124 -> 274 ;
275 [label="gini = 0.0\nsamples = 78\nvalue = [78, 0]"] ;
274 -> 275 ;
276 [label="X[4] <= 54396.0\ngini = 0.317\nsamples = 71\nvalue = [57, 14]"] ;
274 -> 276 ;
277 [label="X[5] <= 4.269\ngini = 0.499\nsamples = 23\nvalue = [12, 11]"] ;
276 -> 277 ;
278 [label="X[2] <= 171.0\ngini = 0.426\nsamples = 13\nvalue = [4, 9]"] ;
277 -> 278 ;
279 [label="X[0] <= 563.0\ngini = 0.48\nsamples = 5\nvalue = [3, 2]"] ;
278 -> 279 ;
280 [label="gini = 0.0\nsamples = 2\nvalue = [0, 2]"] ;
279 -> 280 ;
281 [label="gini = 0.0\nsamples = 3\nvalue = [3, 0]"] ;
279 -> 281 ;
282 [label="X[5] <= 0.595\ngini = 0.219\nsamples = 8\nvalue = [1, 7]"] ;
278 -> 282 ;
283 [label="gini = 0.0\nsamples = 1\nvalue = [1, 0]"] ;
282 -> 283 ;
284 [label="gini = 0.0\nsamples = 7\nvalue = [0, 7]"] ;
282 -> 284 ;
285 [label="X[3] <= 4419.0\ngini = 0.32\nsamples = 10\nvalue = [8, 2]"] ;
277 -> 285 ;
286 [label="X[5] <= 4.723\ngini = 0.444\nsamples = 3\nvalue = [1, 2]"] ;
285 -> 286 ;
287 [label="gini = 0.0\nsamples = 1\nvalue = [1, 0]"] ;
286 -> 287 ;
288 [label="gini = 0.0\nsamples = 2\nvalue = [0, 2]"] ;
286 -> 288 ;
289 [label="gini = 0.0\nsamples = 7\nvalue = [7, 0]"] ;
285 -> 289 ;
290 [label="X[0] <= 1242.0\ngini = 0.117\nsamples = 48\nvalue = [45, 3]"] ;
276 -> 290 ;
291 [label="X[5] <= 2.387\ngini = 0.081\nsamples = 47\nvalue = [45, 2]"] ;
290 -> 291 ;
292 [label="gini = 0.0\nsamples = 1\nvalue = [0, 1]"] ;
291 -> 292 ;
293 [label="X[0] <= 205.5\ngini = 0.043\nsamples = 46\nvalue = [45, 1]"] ;
291 -> 293 ;
294 [label="X[0] <= 147.0\ngini = 0.375\nsamples = 4\nvalue = [3, 1]"] ;
293 -> 294 ;
295 [label="gini = 0.0\nsamples = 3\nvalue = [3, 0]"] ;
294 -> 295 ;
296 [label="gini = 0.0\nsamples = 1\nvalue = [0, 1]"] ;
294 -> 296 ;
297 [label="gini = 0.0\nsamples = 42\nvalue = [42, 0]"] ;
293 -> 297 ;
298 [label="gini = 0.0\nsamples = 1\nvalue = [0, 1]"] ;
290 -> 298 ;
}